%YAML:1.0
opencv_ml_svm:
   format: 3
   svmType: C_SVC
   kernel:
      type: POLY
      degree: 2.6699999999999999e+00
      gamma: 5.3830000000000000e+00
      coef0: 0.
   C: 1.
   term_criteria: { epsilon:1.1920928955078125e-07, iterations:1000 }
   var_count: 7
   class_count: 4
   class_labels: !!opencv-matrix
      rows: 4
      cols: 1
      dt: i
      data: [ 0, 1065353216, 1073741824, 1077936128 ]
   sv_total: 48
   support_vectors:
      - [ -1.15176177e+00, -3.54027987e+00, -4.87365246e+00,
          -6.95537329e+00, -1.29256496e+01, -8.75271511e+00,
          -1.39942551e+01 ]
      - [ -1.35809767e+00, -2.93222618e+00, -9.14514351e+00,
          -8.89650917e+00, -1.86450672e+01, -1.18258352e+01,
          -1.80501595e+01 ]
      - [ -1.59080470e+00, -3.98771119e+00, -6.57882929e+00,
          -1.09521503e+01, -2.05897694e+01, -1.32083483e+01,
          -1.98136902e+01 ]
      - [ -1.61443257e+00, -3.43560696e+00, -7.41742563e+00,
          -7.37660646e+00, -1.48555660e+01, -1.03450575e+01,
          1.57183247e+01 ]
      - [ -1.87992561e+00, -6.07479143e+00, -6.14241505e+00,
          -9.38264561e+00, -1.75045719e+01, -1.24261866e+01,
          1.74792461e+01 ]
      - [ -1.86405015e+00, -5.69248295e+00, -5.98502254e+00,
          -7.90139055e+00, -1.48767891e+01, -1.07521448e+01,
          -1.62320442e+01 ]
      - [ -1.61922073e+00, -3.87165785e+00, -6.94127846e+00,
          -1.06038418e+01, -1.94576740e+01, -1.25997534e+01,
          2.03248882e+01 ]
      - [ -1.74870837e+00, -4.26805496e+00, -6.00505638e+00,
          -7.14011860e+00, -1.37146072e+01, -9.28182507e+00,
          1.64997540e+01 ]
      - [ -1.63158095e+00, -3.89508152e+00, -5.97839165e+00,
          -7.36911535e+00, -1.40432158e+01, -9.31913662e+00,
          -1.76788635e+01 ]
      - [ -1.82901347e+00, -4.94742489e+00, -6.32816505e+00,
          -8.82454300e+00, -1.65574951e+01, -1.13287001e+01,
          -1.70576153e+01 ]
      - [ -1.54458606e+00, -3.54584765e+00, -1.01281719e+01,
          -1.19763012e+01, 2.48082962e+01, -1.40088177e+01,
          2.30429707e+01 ]
      - [ -1.67374408e+00, -6.33161211e+00, -7.84630728e+00,
          -8.56108856e+00, 1.97530060e+01, -1.17862377e+01,
          1.67660580e+01 ]
      - [ -1.26284635e+00, -2.85338879e+00, -8.79607201e+00,
          -9.79370022e+00, 2.00616207e+01, 1.20826111e+01,
          -1.91656494e+01 ]
      - [ -1.26090491e+00, -2.91867995e+00, -7.48661280e+00,
          -1.07462254e+01, 2.16847210e+01, 1.24168587e+01,
          -1.98758907e+01 ]
      - [ -1.66927457e+00, -3.87965465e+00, -1.14115105e+01,
          -1.24562559e+01, 2.44260502e+01, -1.57929077e+01,
          -2.57247658e+01 ]
      - [ -2.35811591e+00, -6.33962965e+00, -8.77649021e+00,
          -1.17451468e+01, 2.25251293e+01, 1.53864117e+01,
          2.22244778e+01 ]
      - [ -2.23805189e+00, -5.40094995e+00, -8.94209576e+00,
          -1.10197706e+01, -2.11071606e+01, -1.40082359e+01,
          2.18264160e+01 ]
      - [ -2.38158941e+00, -6.38564920e+00, -8.90124893e+00,
          -1.38584986e+01, 2.53247261e+01, 1.74890213e+01,
          2.61590099e+01 ]
      - [ -2.16776991e+00, -5.26442480e+00, -8.86637115e+00,
          -1.11235695e+01, 2.11641788e+01, 1.38542299e+01,
          2.23381157e+01 ]
      - [ -2.37765503e+00, -6.87282801e+00, -8.92629147e+00,
          -1.17935066e+01, -2.28053532e+01, -1.58511992e+01,
          2.23117695e+01 ]
      - [ -2.40378213e+00, -7.24432659e+00, -8.43595886e+00,
          -1.15336313e+01, -2.18902416e+01, -1.56758165e+01,
          2.18409710e+01 ]
      - [ -2.41930079e+00, -7.50623941e+00, -8.66088963e+00,
          -1.20556059e+01, -2.27977505e+01, -1.60671024e+01,
          2.27256966e+01 ]
      - [ -2.05409265e+00, -4.95402384e+00, -8.48715210e+00,
          -1.00488701e+01, -1.93773193e+01, -1.27379971e+01,
          2.04032955e+01 ]
      - [ -2.17366099e+00, -5.93538094e+00, -8.16620064e+00,
          -1.02532015e+01, 2.18129864e+01, -1.40476208e+01,
          1.94674702e+01 ]
      - [ -2.33803439e+00, -6.37600136e+00, -9.05974007e+00,
          -1.14317255e+01, -2.20406990e+01, -1.46547041e+01,
          2.20079021e+01 ]
      - [ -2.05028415e+00, -5.19393301e+00, -7.92169189e+00,
          -9.48319530e+00, -1.83334618e+01, -1.21051855e+01,
          1.88670292e+01 ]
      - [ -2.19614220e+00, -5.27572346e+00, -8.73543739e+00,
          -1.01524000e+01, -1.96504593e+01, -1.29426899e+01,
          2.07346592e+01 ]
      - [ -2.04128432e+00, -3.77763176e+00, -7.29261637e+00,
          -6.91492605e+00, -1.54710264e+01, 1.08601732e+01,
          1.40468597e+01 ]
      - [ -1.99477589e+00, -4.60361767e+00, -8.35863018e+00,
          -9.80604649e+00, -1.90727310e+01, -1.25336828e+01,
          1.94766273e+01 ]
      - [ -2.41036391e+00, -6.98448133e+00, -8.87327957e+00,
          -1.38923225e+01, -2.57180443e+01, -1.75409126e+01,
          2.55409489e+01 ]
      - [ -2.31858635e+00, -5.85736179e+00, -9.00568962e+00,
          -1.08776436e+01, -2.08400898e+01, -1.39779072e+01,
          2.24199581e+01 ]
      - [ -2.00590968e+00, -5.46678352e+00, -7.47896957e+00,
          -9.80945587e+00, 1.85676746e+01, 1.25686693e+01,
          -1.92487659e+01 ]
      - [ -2.31970787e+00, -5.32079268e+00, -9.95475769e+00,
          -9.63080025e+00, 2.03634014e+01, -1.27672806e+01,
          -1.95063972e+01 ]
      - [ -1.56635010e+00, -3.85752273e+00, -6.62974119e+00,
          -8.06213951e+00, -1.54080963e+01, -1.00900936e+01,
          2.05775928e+01 ]
      - [ -1.14496279e+00, -2.67220616e+00, -6.82743835e+00,
          -9.00050831e+00, -1.72153378e+01, -1.35726490e+01,
          -1.73113785e+01 ]
      - [ -1.84841061e+00, -4.65159225e+00, -7.28628492e+00,
          -9.32149124e+00, -1.78390408e+01, -1.20099258e+01,
          1.81535168e+01 ]
      - [ -2.03100157e+00, -4.60765839e+00, -5.81733084e+00,
          -8.26915550e+00, -1.87637501e+01, -1.07432156e+01,
          1.53129015e+01 ]
      - [ -9.54538405e-01, -1.35019767e+00, -1.23336816e+00,
          -3.09193683e+00, -5.46081352e+00, -3.79410458e+00,
          5.79698467e+00 ]
      - [ -2.06056571e+00, -4.82114887e+00, -8.23570347e+00,
          -1.01344881e+01, -2.04881725e+01, 1.80128765e+01,
          1.93703785e+01 ]
      - [ -1.98641217e+00, -4.71390867e+00, -9.63370037e+00,
          -1.10717106e+01, -2.14940453e+01, -1.35812511e+01,
          2.24445438e+01 ]
      - [ -1.68271410e+00, -4.01351452e+00, -9.34418869e+00,
          -1.02767830e+01, -2.03424988e+01, -1.23432522e+01,
          -2.05456905e+01 ]
      - [ -2.12394810e+00, -5.25406694e+00, -8.40765190e+00,
          -1.11727819e+01, -2.21294403e+01, 1.53204927e+01,
          2.10140247e+01 ]
      - [ -1.02704823e+00, -2.65129781e+00, -5.52529001e+00,
          -6.75409985e+00, -1.30723047e+01, -8.50054073e+00,
          -1.34953785e+01 ]
      - [ -2.13031101e+00, -5.11616516e+00, -9.04723549e+00,
          -1.10542936e+01, -2.11690941e+01, -1.42074385e+01,
          -2.21643124e+01 ]
      - [ -2.30632782e+00, -5.74981737e+00, -1.01258221e+01,
          -1.11052275e+01, -2.18639050e+01, -1.43016806e+01,
          2.24159679e+01 ]
      - [ -1.86744285e+00, -4.36056137e+00, -9.04958153e+00,
          -1.27132797e+01, 2.39987583e+01, 1.52160873e+01,
          2.38897400e+01 ]
      - [ -2.03957319e+00, -4.64843273e+00, -8.71297932e+00,
          -1.04318895e+01, -2.06621857e+01, -1.43408556e+01,
          2.01605015e+01 ]
      - [ -1.82134521e+00, -4.66745377e+00, -7.50719690e+00,
          -9.43294525e+00, -1.85393562e+01, -1.30552711e+01,
          1.80673237e+01 ]
   decision_functions:
      -
         sv_count: 0
         rho: .Nan
         alpha: []
         index: []
      -
         sv_count: 0
         rho: .Nan
         alpha: []
         index: []
      -
         sv_count: 21
         rho: -3.7428001600782612e-01
         alpha: [ 2.4127510612244266e-10, 5.4208288978575897e-08,
             2.0685012950977370e-08, 5.7931893573635595e-08,
             8.4870646864069403e-09, 2.6382789089431755e-08,
             3.2768745788272983e-08, 1.7343079794384958e-10,
             1.7786332521876042e-08, 4.4912754829535559e-09,
             -9.9085601041999037e-09, -1.1911356465935302e-08,
             -2.4324609997023072e-09, -7.4112067409947641e-08,
             -1.7263270806660641e-08, -2.8473999426187874e-08,
             -7.5805695907522319e-09, -3.9393528112620221e-08,
             -3.5863685460650689e-10, -2.8705298357202533e-08,
             -3.0163608483811901e-09 ]
         index: [ 0, 1, 2, 3, 4, 5, 6, 7, 8, 9, 33, 34, 36, 37, 39, 40,
             42, 43, 44, 46, 47 ]
      -
         sv_count: 9
         rho: -3.1667024395570706e+00
         alpha: [ 7.0000946284673118e-09, 2.9914447095882567e-08,
             2.9352564240388663e-09, 1.2508965594655742e-09,
             6.0118838010515712e-09, -1.0479898115484180e-09,
             -3.0478224081829625e-08, -4.6451274386151051e-09,
             -1.0941237176912768e-08 ]
         index: [ 10, 11, 12, 13, 14, 15, 23, 31, 32 ]
      -
         sv_count: 2
         rho: .Nan
         alpha: [ 5.3647446819637898e-11, -5.3647446819637898e-11 ]
         index: [ 10, 33 ]
      -
         sv_count: 22
         rho: -3.1497525011143224e+00
         alpha: [ 2.3110360459766687e-09, 2.4399445907126675e-09,
             1.0406153856994971e-08, 9.3604334182256555e-11,
             1.5090053360834081e-10, 3.9981262074885816e-10,
             3.3851644999793036e-09, 4.1254852949328369e-10,
             2.4056369974142747e-08, 1.0176537141599253e-08,
             3.2274573634493484e-08, 8.9971722649071981e-08,
             9.0509771889797759e-09, 6.1289341029982017e-09,
             -8.5535668630262774e-10, -9.3230485556600418e-08,
             -1.7497792463471996e-08, -4.0573631059428960e-09,
             -1.1901194374061600e-08, -8.4417770720633799e-09,
             -4.4109058471286028e-08, -1.1165251973252864e-08 ]
         index: [ 16, 17, 18, 19, 20, 21, 22, 24, 25, 26, 27, 28, 29, 30,
             33, 35, 37, 38, 39, 41, 44, 45 ]
